60 50
_ -0.11811747 -0.1799878 0.063292496 -0.1507386 -0.082296714 0.056303605 0.011400327 0.095312655 0.006046699 0.02109441 0.0043019247 -0.08405597 -0.057307616 -0.12977023 0.17198485 0.05243238 0.03286193 -0.034610197 -0.08002907 0.055815227 -0.13098747 -0.1564413 0.09803187 -0.08671614 -0.14241414 0.01607542 0.0050721816 0.040399365 -0.007454345 0.16936903 -0.11146603 0.297449 -0.123665325 0.19838391 -0.0053403303 0.11808682 0.261343 -0.11682159 -0.0552533 0.16276479 0.13500682 -0.043532424 0.078220166 -0.13143761 -0.13421468 -0.25284657 0.19976762 -0.050785612 -0.07048357 -0.08103344
e -0.17950545 -0.0035088595 -0.036205377 0.051961157 0.019800695 0.14588511 -0.10948521 0.0066720247 0.026755653 0.12973225 0.02228507 0.046705723 -0.11620333 -0.06926944 0.118162304 0.04937839 0.05980409 -0.0105885 -0.09935098 0.06340493 -0.038001608 -0.08835755 0.1833507 -0.13543156 -0.21448217 -0.086531155 -0.01940726 0.015223526 0.16865785 0.08375954 -0.12834711 0.23038366 -0.16132757 0.20356062 0.110689685 0.034172762 0.053180523 -0.05766691 -0.023184936 0.063329466 0.07865337 -0.06909029 0.06399496 -0.034259405 0.018757205 -0.4412696 0.10630079 -0.1896118 -0.087775275 -0.11925609
t -0.09841335 -0.027185518 -0.028725766 0.018391443 -0.1488557 0.2036421 0.0063802926 -0.037866745 0.02553063 0.16411401 -0.01082557 0.16176301 0.067804195 -0.106452085 0.18267283 0.03158685 -0.023575585 -0.13010956 -0.05006186 0.023593048 -0.16849387 -0.16638197 0.23296401 -0.09129089 -0.1919461 0.017659288 0.11213828 -0.046066742 0.07798129 0.0947944 -0.12198462 0.19892375 -0.1295135 0.22295272 0.024652781 0.15962942 0.1871303 -0.025507048 -0.08576177 0.019399483 0.088693105 0.027303865 -0.09417713 -0.09885317 -0.020959824 -0.16845107 0.14369571 0.0010696533 -0.14583531 0.08893561
a -0.068325475 -0.18998614 0.013921842 -0.04454166 -0.11808464 0.07778768 -0.18164621 0.13264586 -0.029848969 0.15049933 0.022803782 0.073754296 -0.08248934 -0.08529837 0.13221298 0.08804393 -0.02205902 0.0009558533 -0.08409132 0.07524707 -0.014253839 -0.062390406 0.27753547 -0.14302415 -0.16426186 -0.13337763 0.0810362 0.041514736 0.10746358 0.08438377 -0.138499 0.20657308 -0.06026213 0.20127708 0.054436363 0.04613026 0.13950369 -0.048542485 -0.083978824 0.08758662 0.05493472 0.014009707 0.17269033 0.015717357 -0.008885525 -0.23330489 0.14652543 -0.09936163 0.018533941 -0.069243014
o -0.15273188 -0.15075779 0.093078375 -0.0612698 -0.14444901 0.08934669 -0.09262279 0.0020784682 0.03882445 0.15577683 -0.11264703 0.10843012 -0.046360236 -0.10860233 0.16279359 0.07303 -0.07525064 -0.054573204 -0.05023508 0.0063871196 -0.054706298 -0.0718604 0.3497906 -0.09706303 -0.107406825 -0.12269994 0.17920266 0.085691124 0.016745225 0.14457563 -0.121372506 0.15516241 -0.04675417 0.15608606 0.15398909 0.089068666 0.13881373 -0.11389704 -0.014088231 0.08195919 0.003907673 0.043333072 0.011937872 0.07769112 -0.016639652 -0.29315057 0.20932098 -0.07950975 0.035087302 -0.03906238
n 0.053289946 -0.142111 -0.020446947 -0.07350596 -0.2490352 0.17135409 -0.13883664 0.15580991 0.06979807 0.15438223 -0.077696875 0.09290202 -0.0050302884 0.027385667 0.34417728 0.17877065 0.11678469 -0.11284433 -0.0249397 -0.011012328 -0.07457205 -0.18761536 0.032973938 -0.14669794 -0.15760784 -0.0014493982 0.023763305 0.09558924 0.07122532 0.06465195 -0.09740148 0.19156383 -0.16858655 0.2177101 0.049930956 0.08656172 0.16383347 -0.06699927 -0.07323342 -0.09081571 0.0817616 -0.08689271 -0.020557154 -0.10649967 -0.023258341 -0.19884163 0.064679086 -0.11252957 -0.045539774 0.021258805
i -0.19423628 -0.20722951 0.058322582 -0.025394913 0.102140486 0.17057233 -0.18518436 0.103402205 -0.049924504 0.15259936 -0.0042267754 0.15205042 -0.00015848281 0.048547573 0.0877081 0.062215153 0.030571936 -0.06409132 -0.19836529 0.014338978 -0.08980622 -0.1302711 0.18773228 -0.09721119 -0.16322851 -0.11008958 0.08612627 0.027530648 0.1798893 0.09029494 -0.10228058 0.31211048 -0.054226343 0.22512676 0.11188157 0.105633095 0.12605284 -0.13277836 -0.02984979 -0.057633325 0.05710041 -0.01879207 -0.041439343 0.034634072 0.093199946 -0.22536129 0.12188692 -0.0076103737 -0.00669166 0.037179653
s -0.040915277 -0.042284857 0.08973881 -0.04972494 -0.06745078 0.21253932 -0.119932905 -0.054026715 0.029767802 0.15601875 -0.0026805436 0.073010005 0.05975812 -0.13130961 0.22798692 0.14057952 -0.012532409 -0.014979979 -0.030430121 0.053943757 -0.07634886 -0.053166263 0.21921721 -0.057987466 -0.149384 -0.04408634 0.14027172 0.02218163 0.02868995 0.12204822 -0.16593693 0.19564822 -0.14648385 0.18816423 0.026761362 0.081207 0.14817595 -0.05232181 -0.090540305 0.074833535 0.13735367 -0.044137157 0.015654527 -0.0069074174 -0.018405957 -0.1663725 0.077315375 -0.11585754 -0.16271913 -0.048492048
h -0.08576178 0.11178265 0.10671604 0.040129654 -0.019623384 0.21513286 -0.25148028 0.15029037 -0.024832698 0.105618104 -0.1274265 0.06540641 -0.05442051 -0.0750023 0.34787688 0.15713814 0.05866935 0.0017950387 -0.16981661 0.030538755 -0.11334877 -0.17464992 0.18894604 -0.07514196 -0.024938723 -0.06832155 0.07677185 0.19881357 -0.10365421 0.20676775 -0.14811662 0.30563408 -0.10449191 0.108812734 -0.023566674 0.0076267063 0.14659567 -0.08968689 -0.006557562 0.034779083 0.030651473 0.026324889 0.01517394 -0.01713045 0.007144442 -0.23879626 0.19981577 -0.028848626 0.08366507 0.00066676794
r 0.07632163 -0.11896021 0.008682126 -0.08108671 -0.016553767 0.15064919 -0.22124493 0.060895205 -0.007983974 0.11386667 -0.040603288 0.0998681 0.07402446 -0.046350803 0.22079214 0.1221684 -0.016319102 -0.07454825 -0.08327169 0.07213691 -0.12074868 -0.1532052 0.1923823 0.05303906 -0.063547745 0.03248799 0.13572702 0.048768297 0.039818075 0.11159569 0.004567749 0.19316469 -0.20075928 0.10321018 0.103347175 0.11133719 0.14475358 -0.113435894 -0.010097313 0.13637131 0.07098558 -0.112339646 -0.04245548 -0.027686434 -0.06260326 -0.25785312 0.18650483 -0.00822517 -0.2750264 -0.02730128
d -0.017213302 0.06193288 0.05774552 -0.035948884 -0.07386333 0.19205545 -0.12464036 0.09853193 -0.05577453 0.020258106 0.10952084 0.077108584 0.046454046 -0.16326964 0.14271815 0.057995327 0.05305912 -0.11961672 -0.1090729 0.0070119957 -0.0792403 -0.11428121 0.16273321 -0.13401367 -0.11493247 -0.10712812 0.11260611 -0.10360379 0.05865665 0.17143814 -0.20075065 0.29191598 -0.07694273 0.23373789 0.14125909 0.100796975 0.121345595 0.05719107 -0.0018840393 0.0816268 0.14209114 0.013596319 0.05217381 0.033907317 -0.029447844 -0.23966707 0.061716504 0.11234389 -0.15166497 -0.0028447474
l -0.023271251 -0.15050362 0.042388298 -0.15701146 -0.14646325 0.26855153 -0.10841616 0.15200095 -0.031172993 0.18023987 -0.050395183 -0.017697008 -0.0062150024 -0.099890426 0.19814126 0.06565064 0.14392671 -0.1172258 -0.00055599643 -0.090454414 -0.009346097 -0.10833903 0.09265189 -0.13980517 -0.010097104 -0.11247927 0.24856108 0.0052630603 0.03611599 0.15426017 -0.11327693 0.17607358 -0.13261457 0.14638355 0.19623283 0.0939309 0.21962464 -0.045726255 -0.06094799 0.081560865 0.18057607 -0.13744974 0.08218765 0.043189306 0.0021545202 -0.20758973 0.04182373 0.024330137 -0.122234955 -0.044026192
u 0.06711772 -0.18704857 0.027858758 0.07710284 -0.022314556 0.16333005 -0.064444885 -0.015049105 0.08203108 0.16823639 0.03840242 -0.016207756 0.1792363 0.00088029314 0.11939187 0.018119998 0.031633884 0.034283657 -0.15783279 0.056957092 0.015563892 -0.06345304 0.1877791 -0.19194826 -0.24437244 -0.25694376 0.003503063 -0.076096974 0.06488343 0.112955965 -0.020283341 0.32142153 0.078524165 0.2870504 0.18170631 0.18910688 0.21596594 -0.30710447 -0.20714688 -0.096262336 0.02200692 -0.10687679 0.11846896 -0.14014407 -0.059613734 -0.112210825 0.019255886 -0.1749874 -0.059692167 -0.12228419
m 0.022175418 0.007051442 0.024063256 -0.08557025 -0.173138 0.30103242 -0.050464496 0.060853757 0.0049596136 0.094104774 -0.004296394 0.0024040898 0.0604973 -0.110085115 0.07993043 0.13053392 0.014068584 0.0060035135 -0.06369651 0.08254815 -0.062723935 -0.052047018 0.2750648 0.04563977 -0.068504035 -0.018140486 0.059684437 0.0540688 0.1337819 0.18929395 -0.09053402 0.24276657 -0.08559529 0.15769419 0.3114995 0.09071391 0.2252627 -0.0018003797 0.051068105 0.13408032 0.11348101 -0.05845972 0.07508498 -0.06217644 -0.017903386 -0.18580146 0.100854 -0.022952097 -0.06321476 0.0030523366
c -0.01787377 -0.09218134 0.01629056 -0.07189806 -0.13917701 0.105012454 0.026449636 -0.12577648 0.020615809 0.039916188 0.05646063 0.13445243 0.07197117 -0.16607714 0.21634223 0.039164506 0.004477835 -0.021985766 -0.03849968 0.15428141 -0.09958342 -0.12220032 0.16426077 -0.07563039 -0.2023907 -0.08561436 0.11766215 0.021516513 -0.024736123 0.10524244 -0.15679038 0.17567614 -0.18939677 0.28042477 0.173714 0.10170817 0.12565911 -0.017550593 0.035026472 0.021177428 0.07850408 -0.004984836 -0.022859283 -0.08408683 -0.041606274 -0.28864488 0.044234194 -0.051507764 -0.079820015 -0.005779754
f 0.01580895 0.10093573 0.04089726 -0.04031389 -0.19658688 0.20252985 0.045856938 0.0794474 0.013356695 0.15658706 0.14582011 0.24064383 0.033644762 -0.09679011 0.11125524 0.15005809 0.014308752 0.033094283 -0.011077295 -0.015740998 -0.1054001 -0.19590403 0.15123574 -0.010887787 -0.21352044 0.02561254 0.029206704 0.048210334 0.010583039 0.1272888 -0.16274828 0.2643564 -0.13317078 0.19494231 0.3020834 0.062092375 0.123339854 -0.18004824 -0.023078552 0.11246511 0.06610051 -0.052522108 0.090776876 -0.081859484 -0.08474732 -0.13041466 0.12737344 0.00043592512 -0.018840566 0.06440966
w 0.13319914 0.0104856575 -0.14342219 0.10690068 -0.20419338 0.24595092 0.10312259 0.028637985 -0.08990341 0.08437025 0.008281348 0.13576065 -0.07365266 -0.093631975 0.060462356 0.01719262 0.03301347 0.032433804 -0.1319862 -0.003280587 -0.12794037 -0.14257292 0.19756794 -0.09260055 -0.2459026 -0.04287821 0.11274777 0.12043803 0.18949386 0.12221312 -0.18392779 0.34089026 -0.08695553 0.24013937 -0.10281476 0.12714237 0.32604027 0.07298952 -0.0015485613 0.007043997 0.1313665 0.13453873 0.084325485 -0.13511126 -0.020196347 -0.20772438 0.19973376 0.0019096398 -0.017534325 0.025266875
y -0.14053467 0.027931144 0.2480913 -0.023053322 -0.17072771 -0.064963214 -0.00774853 0.10705879 0.09014651 0.1383754 0.01624104 0.034624536 0.048439376 -0.08112776 0.14226998 0.19453156 0.03647766 -0.12319035 -0.102093495 -0.104286894 0.014704799 -0.041464422 0.18765576 -0.093981095 -0.2779373 -0.070790164 0.22117609 -0.109556496 0.11532088 0.09507142 -0.12985456 0.24612969 -0.07001635 0.23634672 0.107828796 0.062086336 0.08248375 -0.20245622 -0.012264181 -0.095972046 0.108146116 -0.11428442 0.05308692 0.035761956 -0.04225709 -0.3362265 0.0966609 -0.06142482 -0.08856641 -0.13772042
g -0.17076033 -0.14257781 -0.0028497607 0.06776773 -0.19539452 0.2673556 -0.031863287 -8.6718916e-05 -0.10272029 -0.07970056 0.22380982 0.029984208 0.04549533 -0.13113783 0.2428164 0.06451756 0.1494103 -0.08984502 -0.02862507 0.113878936 -0.016451044 -0.08952718 0.070701525 -0.11585011 -0.10927719 -0.02361294 0.10895884 -0.053929772 0.12937751 0.12993413 -0.20439574 0.24823192 -0.15649396 0.33877462 0.16297443 0.0734157 0.23660813 0.06296475 0.12445837 0.042789 0.038143586 0.02153467 0.030388866 -0.054019444 0.01262093 -0.23594509 0.03509639 0.093582764 0.044767104 0.07449869
p 0.07380733 0.005502796 0.046579693 -0.12354337 -0.055153396 0.112966485 -0.1746262 0.06519725 0.025123935 0.13018468 0.0034979773 0.16588095 0.095074445 -0.20640951 0.041572805 0.17145887 -0.021016812 0.15822253 0.009716717 0.2126049 -0.18523933 -0.20394602 0.17359674 -0.061765786 -0.37548748 -0.031811103 -0.013915745 0.18637368 -0.050782558 0.114687644 -0.24675131 0.23074383 -0.12627955 0.22652584 0.17839925 0.07693162 0.04196816 0.05952792 0.10610324 0.08655598 0.17347069 4.1100408e-05 0.10289835 -0.060805123 -0.070849285 -0.09473363 0.020489 -0.10313752 -0.11023 0.07353238
<s> -0.5446307 0.17353447 0.3458332 0.06254433 -0.008414588 0.5447121 0.18086946 -0.02710654 0.06531387 0.45199534 -0.15840122 0.027753644 0.3925863 0.14734188 -0.02405052 0.06887093 0.352129 0.36193016 -0.44230878 0.16354348 -0.14342014 0.045839045 0.19237067 -0.042918745 0.008054496 -0.19293126 0.33321926 0.26822662 -0.20699796 0.098228365 -0.34879792 0.2154468 -0.32328013 0.16665986 -0.41983047 -0.051136263 0.37918022 -0.16239437 0.06818298 -0.032223225 0.29142275 0.07501347 0.28860223 -0.4255761 0.25695723 -0.10801692 0.4611783 -0.009287425 -0.047629774 0.20399883
</s> -0.15961154 -0.07931598 0.10838457 -0.23523086 -0.3646806 -0.12685539 0.013457285 0.35160923 -0.784473 -0.24612609 0.65258676 0.08824297 0.24130087 -0.27699083 0.54320914 0.1837237 0.117656246 0.5144189 -0.22666569 -0.10023085 -0.18094571 -0.09989815 0.58843195 0.13223845 -0.07145251 0.17871784 -0.2382501 0.4333517 0.037954405 -0.07032807 0.013584956 0.012426932 0.0765303 0.16031618 0.60454607 0.18585101 0.32186973 -0.25003406 -0.16772942 -0.15306124 -0.13843672 -0.31803545 -0.29925016 0.18806507 0.30315006 -0.51360726 -0.18587789 -0.46264452 -0.52083236 0.013357514
, -0.10823156 -0.0007372096 -0.017579563 -0.32611358 -0.022695307 -0.05312198 -0.09215409 0.35887772 0.17339396 0.1541575 -0.13979669 -0.026719457 0.07127006 -0.1881913 0.082479045 -0.10124066 0.15120597 0.03291441 -0.1153526 0.17234 -0.050777636 -0.13596372 0.19066466 -0.19669662 -0.07084296 -0.12615287 0.20518425 0.009061629 -0.1189966 0.06868027 -0.27355927 0.19029824 -0.06203398 0.3630332 0.044645164 0.07929974 0.17883022 -0.097841814 0.039288428 0.026683936 -0.027312148 -0.0013019558 0.28898767 -0.19979998 0.18875676 -0.2723413 0.29898286 0.097018026 0.0015602479 0.1967986
b 0.105460115 -0.0023289507 0.20217286 -0.10245385 -0.2615557 0.05861726 -0.072313845 0.041686594 0.05220238 0.060384355 0.032526407 0.048596766 -0.09005281 0.054834463 0.08745584 0.090657994 -0.046769507 0.023868619 -0.119170025 -0.054033216 -0.099286325 -0.095812395 0.11935515 -0.20850813 -0.034214877 -0.11912185 0.12175561 0.06990933 0.12912871 0.21444869 -0.14769384 0.28567144 -0.20448104 0.24454217 0.14970066 0.1472128 0.28523555 0.004852349 0.048482142 0.14915177 0.088295035 -0.0054106694 -0.040712122 -0.061107542 -0.120267764 -0.20719534 0.08517653 0.03909835 -0.04695297 -0.00045929418
v 0.043197405 0.12515564 0.083585374 -0.079120725 -0.32250503 0.33865538 -0.15328735 0.09598014 -0.022679597 0.06512407 0.08556179 0.06337337 -0.03599841 -0.119352765 0.13099246 0.104935534 -0.047132563 -0.018540615 -0.012115012 0.12718703 -0.12759934 -0.21339382 0.38712347 -0.06668292 -0.122197896 -0.01667203 0.05817208 -0.080211334 0.15622939 0.1700631 -0.046394844 0.34359524 -0.08342382 0.15151325 0.051813267 0.09144444 0.074543275 0.018182991 -0.09758994 0.049635075 -0.070519134 0.0072629675 0.16388576 -0.20841058 0.056794528 0.050667066 0.08421997 0.0060636518 -0.19635244 -0.044683132
. 0.14313821 -0.32089818 0.22844441 -0.095931634 -0.06180631 -0.11311759 0.03704908 0.039894424 -0.16396548 -0.26587382 0.14318034 0.08611292 0.1002074 -0.19940297 0.39938608 0.30695164 0.40789384 -0.08044539 -0.34278 0.12365843 -0.098851636 -0.1890719 0.85919625 -0.16879202 -0.43972006 -0.15016147 -0.34451085 0.105365984 0.257599 -0.08922046 -0.0413362 -0.30855775 -0.4318077 -0.17337458 0.49050426 -0.13560016 0.38979447 -0.13040896 -0.23938303 0.17263591 0.19534892 -0.2828223 -0.096566245 -0.058676776 0.37310302 -0.08401488 -0.08053222 -0.102347955 -0.10127062 0.2317279
k -0.02958965 0.078935176 -0.021905635 0.021819377 -0.041815437 0.11820794 -0.17348374 0.18212566 -0.19201215 0.17393635 0.03802163 0.0075588543 0.052755576 -0.15034546 0.39492995 0.15841338 -0.013343558 -0.14916076 -0.17893 0.03863121 -0.0762353 -0.11355313 0.22880246 -0.083943784 -0.061913267 -0.13850018 0.2654847 -0.06308301 -0.030649249 0.12652265 -0.0613707 0.17333128 0.024102222 0.20220846 0.051957887 0.18265164 0.29197055 -0.028103238 -0.31705132 0.0726563 0.28405577 -0.03391008 0.13068569 0.05311746 -0.088843495 -0.039108012 0.112053275 0.15480453 0.025928812 -0.07113962
; 0.12272739 0.06655775 -0.08571296 -0.33219716 0.015992539 -0.16761906 0.101091705 0.3867106 0.3415493 0.0880984 -0.13180792 0.06983208 0.0031011682 -0.3308148 0.16028993 -0.3821571 0.065676264 0.0689033 -0.04483483 0.17616029 -0.041394517 -0.19208454 0.14191844 -0.33360723 0.05377213 -0.28051776 0.20698771 -0.06183008 -0.15285484 0.07399133 -0.24173576 0.12260311 -0.23789777 0.3822492 0.21692626 0.1315153 0.21671528 -0.3229852 0.056771252 0.15164544 -0.31875485 -0.08101048 0.33892414 -0.45568126 0.19695766 -0.38889843 0.36401662 0.20107457 0.016785113 0.35531604
" 0.081714146 -0.119967446 0.17905472 -0.028379567 -0.37972352 0.25751916 -0.38990316 0.122293845 -0.15001081 0.055055067 -0.13155918 -0.27862793 0.46368226 -0.029703513 -0.24535926 0.59644836 0.092503816 0.11120609 -0.31245798 -0.2511993 0.22033407 0.6455306 0.45010567 0.24273708 -0.15997407 0.3086793 0.14271446 -0.07647267 0.19417676 0.22359112 -0.3138079 0.48159084 0.07991847 0.301202 -0.21709995 -0.2395746 0.4037035 0.18162936 -0.11158334 0.032526463 0.69593036 -0.19493057 -0.047955878 0.14896104 0.16929528 -0.19895981 0.0077594114 -0.54191136 -0.21464379 0.07481494
x 0.06127068 -0.07961827 0.21953763 -0.51274484 0.24192014 0.39573017 -0.11084691 -0.08215935 0.15447682 0.17358643 0.06494124 0.10715845 0.0916429 -0.21488005 0.22582328 0.23273794 -0.16707501 -0.026676867 0.024961771 0.3380665 -0.20001581 -0.07298412 0.26485738 0.11143138 -0.19382046 0.04962996 -0.07040618 -0.013477083 0.060624547 0.11284966 -0.13166016 0.37230548 -0.13970144 0.380472 -0.008084647 0.06626704 -0.16692515 -0.2051944 0.097619735 0.062280707 -0.054219857 -0.054406743 -0.015147748 -0.06393418 0.23485161 0.0730443 -0.01693004 -0.28091133 -0.07300857 -0.15210861
' 0.03119145 0.24093735 -0.093189254 -0.011123343 -0.008221543 -0.13487384 -0.11060878 0.15990847 -0.16362794 0.24020827 -0.018957935 -0.33642015 0.20920394 0.107828446 0.015722038 0.28895712 0.029367622 -0.008441955 0.04644735 0.07213937 -0.10902977 0.065240815 0.265346 -0.38995254 -0.34885004 0.011773341 0.19822021 0.18877356 0.16358007 -0.069840126 -0.097339295 -0.13934653 0.03954517 0.7088834 -0.13000257 0.43739578 0.675079 -0.18428464 0.048438586 0.4026193 0.5322868 -0.108109206 -0.0013422729 0.34670508 0.11270401 0.030332755 0.22979252 -0.39218622 0.031079458 -0.13803099
q -0.14678343 -0.1559727 0.3390456 -0.3570626 -0.25691488 0.2111695 -0.35149246 -0.24129589 0.12407633 -0.22225185 -0.03440892 -0.01923577 -0.0071685333 -0.13477808 0.2190693 0.23129414 -0.19978328 0.43149412 0.067264296 -0.16260445 -0.11339033 -0.031263907 -0.012838848 -0.4245067 -0.05801976 -0.12076275 0.4523981 0.002925304 0.15983835 0.26919034 -0.18698367 0.05366465 -0.4187458 0.39234507 0.1041164 0.18277502 0.19978794 -0.06310528 0.35209945 0.24973711 0.008405496 -0.13136753 -0.33357453 -0.079637766 -0.025894852 -0.05649731 -0.12950341 0.052651916 0.023602549 0.25035816
j -0.020345386 0.114954665 0.16744171 -0.12633328 -0.0050962656 0.4087997 -0.19196722 -0.03317647 0.10431377 0.1422916 -0.05318335 -0.0703156 0.096189395 -0.17367315 0.26170176 0.16285224 -0.24848999 0.29277542 -0.115308754 -0.13113911 -0.06555707 0.08333191 0.17650431 -0.22462422 0.06793287 -0.20160453 0.22626574 -0.1383842 0.16177909 0.20802948 -0.056997225 0.09566049 -0.029775051 0.23677494 0.1915277 0.23034245 0.2597815 -0.22273274 -0.14435376 0.2568376 0.09313366 -0.15410706 -0.069659285 -0.07077597 -0.12396284 -0.10605733 0.023885876 -0.022725655 0.027389448 0.06099527
z 0.033946015 -0.102223136 0.4929635 0.21799147 -0.38644907 0.13083202 -0.31144184 0.604235 -0.31050375 0.09580567 0.006212974 -0.098723516 0.084819466 0.01621986 0.2048033 0.006727588 -0.23469195 -0.31042755 0.09058755 0.37706283 0.14917691 0.3297232 -0.19232926 0.042170707 -0.15188542 -0.096113294 0.074909054 -0.10529674 0.5083405 -0.2284075 -0.385345 0.17375776 -0.27752027 0.29567042 -0.08514663 0.023677265 0.35093075 -0.12699576 -0.35886812 0.005950514 0.004584208 -0.1293387 -0.052230965 0.116325736 -0.11638319 -0.3325529 0.04053178 0.07166055 -0.21573251 0.44302675
? 0.2989909 -0.1320183 0.22398672 0.020363221 -0.22847313 -0.099124484 -0.075910784 0.16252854 -0.1405348 -0.26614267 -0.04875915 -0.056473535 0.3065287 -0.16215096 0.16668098 0.5526493 0.5727773 -0.17657875 -0.6817163 -0.24151376 0.0917094 0.21902029 1.0747633 -0.27312624 -0.33562216 -0.10627541 -0.16944344 -0.03914761 0.15968317 0.01843297 -0.18955407 -0.19674918 -0.39300603 -0.09202627 0.027434452 -0.34701705 0.6052207 -0.017781861 -0.24609238 0.26941422 0.616869 -0.23144713 0.06538001 -0.075574555 0.6438565 0.06907743 0.114798 -0.17543598 0.023895238 0.32975987
: 0.11181652 0.06305511 -0.051050324 -0.45374176 0.21419 -0.2996589 -0.18878697 0.600972 0.37073117 0.044193536 -0.09687105 -0.10156566 0.16746709 -0.3313004 -0.044952437 -0.0033240153 0.19617714 0.14250843 -0.112105496 -0.17671542 0.12141211 0.10210007 0.15729015 -0.22336967 -0.088050164 0.114461705 -0.013624449 -0.07104761 -0.12149841 0.11372197 -0.4800992 0.3537644 0.046365388 0.6091875 -0.018712483 -0.039574213 0.30795833 -0.23101775 0.0027573917 0.16046794 -0.010666618 -0.13574839 0.28867677 -0.17829558 0.34577963 -0.3030565 0.41056144 -0.06723794 0.09036634 0.48369923
é 0.0762362 0.08344047 0.0043553314 -0.16673853 0.008225061 -0.059875492 -0.23558699 0.08526419 -0.063548416 0.14134037 -0.109849386 -0.43615824 0.22735968 -0.07402072 0.02877393 0.38899142 0.10214623 0.028365538 0.030510549 -0.06939321 -0.007503146 0.1632322 0.38941705 -0.22042742 -0.31618708 0.12024787 0.13423806 0.022357792 0.17996828 0.032021493 -0.14556365 0.08180071 0.08731386 0.5641447 -0.054841593 0.26042706 0.45358413 -0.118024014 -0.08348955 0.2819228 0.4788333 -0.2079204 0.0035759571 0.30960163 0.19790319 0.012998239 0.06401367 -0.45077702 -0.10308677 -0.204244
æ 0.09677774 -0.047485605 0.024907574 -0.28599024 -0.029330384 -0.076119184 -0.20431407 0.17611466 0.056236956 -0.09762415 0.039708048 -0.094831266 0.035810836 -0.26431286 0.18733871 0.24465594 -0.007180332 0.00069320353 -0.051829338 -0.20282394 -0.014856665 0.0148697 0.40871358 -0.13584092 -0.2720372 0.10670476 -0.017878907 -0.079133704 0.18550444 0.10182922 -0.18741694 0.16760641 0.049835287 0.36512178 0.22007143 0.1204484 0.19639556 -0.07791541 -0.09630304 0.0973114 0.09682693 -0.14370434 -0.17462215 0.21264242 0.16788252 -0.22671773 0.021589214 -0.19875835 -0.0231585 0.03590707
ê 0.0058801267 -0.08625766 0.03781878 -0.12380586 -0.14425804 -0.008650284 -0.10407189 0.1915363 -0.1495939 0.0098466175 0.045713 -0.058530018 0.047148503 -0.14817232 0.26061022 0.22189145 0.10623642 0.009068234 -0.105601944 -0.058664564 -0.029805746 -0.004828323 0.3502199 -0.10676628 -0.21310927 0.060477372 -0.01994795 0.064904206 0.1426056 0.06834909 -0.1688297 0.11758933 0.015797846 0.24626066 0.11623181 0.08948713 0.2663875 -0.12294515 -0.13922283 0.10434353 0.13771987 -0.08081591 -0.007737841 0.14608894 0.110161 -0.18389696 0.07382789 -0.20734249 -0.03777078 0.031038592
ö -0.029419392 -0.0137719195 -0.01772154 -0.11032178 -0.20007236 -0.11978104 -0.03348852 0.21547379 -0.24880576 -0.08708993 0.09272699 -0.06970177 0.069228545 -0.21235684 0.34069017 0.21668999 0.19576758 0.09817657 -0.23721807 -0.19090429 -0.083792694 -0.08717153 0.5428436 -0.16986072 -0.16405232 0.033592384 -0.04373329 0.1776227 0.05147053 0.05597723 -0.12840594 0.02689777 0.029859371 0.178573 0.27336112 0.11471591 0.39240605 -0.07224154 -0.13645032 0.05335108 0.09968795 -0.0969535 -0.12018869 0.116071366 0.2049425 -0.26567706 0.050185245 -0.13992141 -0.051636666 0.10781078
è 0.0639531 0.0072805556 0.028235078 -0.15548447 -0.1832605 -0.1183269 -0.055672713 0.23610242 -0.18819039 -0.103626624 0.15107599 -0.078571685 0.0672629 -0.2635972 0.28943545 0.23616911 0.15948692 0.19350296 -0.2206661 -0.17966329 -0.044321053 -0.021083828 0.50428486 -0.14889593 -0.22525501 0.022604689 -0.08404894 0.110858195 0.083937384 0.04615899 -0.1269809 0.051507946 0.04122707 0.23244397 0.2606694 0.08004475 0.3086431 -0.07633582 -0.06417803 0.09267665 0.09075662 -0.17670251 -0.07607002 0.11423744 0.2087135 -0.22556198 0.0020195097 -0.22674322 -0.07380073 0.022920374
ë 0.071972206 -0.005495554 0.044333212 -0.15978214 -0.17119525 -0.034812097 -0.029304871 0.1883123 -0.23536094 -0.07995148 0.21243264 0.08808458 -0.019781057 -0.25472403 0.31918076 0.21723153 0.11686774 0.090911396 -0.117617 -0.14014925 -0.09667648 -0.1773022 0.44637018 -0.14974248 -0.2206031 0.021718375 -0.08393396 0.16715905 0.12280653 0.047838777 -0.09293873 0.058712345 -0.040539257 0.12177792 0.31273884 0.1131503 0.2584333 -0.07393536 -0.08928336 0.074564144 0.048908077 -0.13420726 -0.093322076 0.11058501 0.15790622 -0.20265809 -0.01692586 -0.15002376 -0.15044542 0.01000712
à 0.051324565 -0.080766395 0.01955965 -0.097600184 -0.18798855 -0.059134822 -0.1380987 0.15937136 -0.17264254 0.017862014 0.032459453 -0.11349848 0.100710936 -0.15020038 0.15240666 0.2573893 0.1365091 0.040826876 -0.2196696 -0.15663317 -0.011751482 0.07136471 0.47001782 -0.10104815 -0.16504565 0.08683544 0.015261255 0.08578705 0.11873996 0.090653315 -0.09764405 0.13595559 0.024213856 0.24939497 0.091975935 0.032956652 0.31774607 -0.10239934 -0.06078569 0.09150064 0.2094664 -0.117945 -0.056624107 0.10859003 0.19069262 -0.24945322 0.09922705 -0.28900588 -0.08041175 -0.03000232
ô 0.062015817 -0.06986412 0.053637628 -0.11820764 -0.21435475 -0.04444888 -0.061807077 0.1417306 -0.23497745 -0.11947334 0.22655113 0.10572696 -0.025446907 -0.18601124 0.32956237 0.244557 0.08893015 0.13100506 -0.1741984 -0.14739591 -0.07893871 -0.10943469 0.49993718 -0.119938366 -0.24380164 -0.003881563 -0.13687617 0.16466226 0.19766368 0.07663485 -0.061916593 0.055559415 -0.022064658 0.100909986 0.36656934 0.05927801 0.2069526 -0.057495594 -0.09251473 0.031039441 0.046560876 -0.17054825 -0.13576217 0.12604268 0.10192762 -0.2667744 -0.110471755 -0.17668824 -0.16704908 -0.0024598297
ñ 0.06864509 -0.08071401 0.10368248 -0.09704857 -0.25022882 -0.15124519 -0.109474994 0.2598664 -0.30345988 -0.15056124 0.14911982 -0.07063928 0.09506574 -0.16833451 0.26571926 0.29228455 0.11869055 0.12755461 -0.2328522 -0.229082 0.010864786 0.0963479 0.5030384 -0.08015056 -0.1565468 0.09435567 -0.11634106 0.113612585 0.19551368 0.037922923 -0.12962064 0.09186285 0.0040667024 0.18525538 0.24865283 0.04711152 0.3665251 -0.09524787 -0.16361724 0.06446811 0.16772678 -0.18814096 -0.18607046 0.15105854 0.23097906 -0.28568277 -0.017106049 -0.2770306 -0.11479375 0.066922046
ä 0.0172698 -0.044446096 0.06638137 -0.10080205 -0.17865941 0.011569633 -0.062326152 0.13953845 -0.20082507 -0.056941193 0.10502206 -0.03875841 0.10228043 -0.14964724 0.28336278 0.26745954 0.1640705 0.15626694 -0.23938635 -0.16313912 -0.095582694 -0.04756566 0.5219793 -0.16365145 -0.19257356 0.03260633 -0.07973496 0.12798978 0.11557938 0.07174306 -0.10228704 0.05046706 0.025313223 0.15099302 0.18474683 0.08360777 0.32935894 -0.06407389 -0.07659072 0.051659256 0.1562383 -0.13070928 -0.107271135 0.082189806 0.24422146 -0.14014572 -0.00476133 -0.22522612 -0.09155414 0.029269792
ï 0.03337417 -0.061858863 0.0727746 -0.13353685 -0.20143108 -0.028371671 -0.06048671 0.14205004 -0.21839045 -0.095068425 0.18765257 0.081116095 0.0030205187 -0.18612225 0.3529272 0.22194594 0.14799277 0.09041805 -0.16188486 -0.14347331 -0.075862624 -0.15024996 0.476542 -0.13303226 -0.21919586 0.003068941 -0.13799311 0.14299975 0.15114246 0.061262053 -0.017915953 0.065539815 -0.048100263 0.054792207 0.34428465 0.049922407 0.24566106 -0.048592273 -0.13154492 0.027573273 0.06664335 -0.11932311 -0.0667384 0.05258108 0.13493137 -0.21540967 -0.06968056 -0.15447439 -0.13443437 0.0015297496
â 0.012860998 -0.071149275 0.08884054 -0.08630142 -0.19224806 -0.029808 -0.06117548 0.20919953 -0.22999427 -0.080854654 0.11654617 -0.003770783 0.05520116 -0.13241346 0.25871283 0.23391227 0.15585333 0.13344891 -0.2113704 -0.11437244 -0.060321882 -0.02801711 0.46746182 -0.14132717 -0.14691813 0.001086973 -0.0550707 0.1528615 0.10539561 0.04578413 -0.11998793 0.085117966 -0.040303003 0.18727551 0.21609512 0.036582142 0.2754536 -0.0882949 -0.1051995 0.0644563 0.12022831 -0.16425958 -0.10232792 0.06267393 0.23321255 -0.20407411 0.029706439 -0.22939411 -0.10444451 0.057107095
ü 0.045402423 -0.091041245 0.11353126 -0.12480679 -0.19632806 -0.035457987 -0.04927339 0.15876178 -0.18131684 -0.10735072 0.16883759 0.04834493 0.023768315 -0.17766732 0.29488578 0.21656431 0.075318046 0.067131236 -0.16675466 -0.14074449 -0.08776363 -0.1075536 0.44169125 -0.12367762 -0.22980244 -0.03259672 -0.07059804 0.046213843 0.16096824 0.06657491 -0.043798294 0.093095556 -0.030818785 0.12750794 0.32361236 0.06001241 0.2385624 -0.11248104 -0.11266212 0.036610305 0.05891267 -0.1564836 -0.10955403 0.081152566 0.12227445 -0.21041179 -0.04185045 -0.15720172 -0.11213456 -0.0036371308
ο 0.053060815 -0.06679109 0.0543781 -0.11145681 -0.16757913 0.029280322 -0.10568143 0.15315843 -0.15999424 -0.02201198 0.14470996 0.028582336 0.0073567694 -0.1507014 0.2750611 0.22366375 0.07086956 0.0062880283 -0.143572 -0.053731225 -0.07837028 -0.10786085 0.44682375 -0.10772912 -0.20221537 0.009287734 -0.04255616 0.104687415 0.15217364 0.07619201 -0.056077506 0.11470188 -0.08210238 0.1741772 0.28627342 0.08034641 0.23277967 -0.06628185 -0.094055004 0.07791154 0.10178275 -0.15555662 -0.070158385 0.09913464 0.10338239 -0.25180078 -0.005561277 -0.18110316 -0.124824114 -0.031063339
ἶ 0.0992993 -0.093854465 0.026220396 -0.13145615 -0.13413471 0.03401998 -0.16116968 0.12929444 -0.07820854 0.004728429 0.080043405 0.07533301 -0.009775442 -0.12639037 0.21200839 0.17012207 0.02478565 -0.042869452 -0.073263235 -0.009654529 -0.06930429 -0.106749766 0.2866285 -0.11251744 -0.22069624 -0.022434374 -0.04355238 0.021643694 0.15414576 0.08374453 -0.06673482 0.14574042 -0.10403203 0.18064071 0.26789325 0.10801016 0.17556348 -0.086477764 -0.09233276 0.04238109 0.056974858 -0.14105764 -0.029226366 0.0783636 -0.00040055404 -0.25091603 -0.022967601 -0.12761636 -0.12242568 -0.028225366
δ 0.058607597 -0.114985034 0.0062127556 -0.118582465 -0.12735598 0.028117176 -0.15210901 0.09971316 -0.112502374 0.002954032 0.11413949 0.064736895 -0.001311884 -0.10842515 0.24605851 0.17413889 0.04331234 -0.06925504 -0.08148198 -0.011543789 -0.068101026 -0.11496188 0.29880518 -0.09531806 -0.2013686 -0.029264197 -0.047655493 0.04416116 0.1423898 0.07160307 -0.053568505 0.15173854 -0.087420225 0.18266349 0.24748307 0.08328754 0.17012249 -0.069083646 -0.11039478 0.06258399 0.052426327 -0.13023433 -0.026331639 0.07321886 0.016894136 -0.23703681 -0.035693217 -0.10632411 -0.13810866 -0.0094615435
α 0.06481797 -0.1135313 0.013151567 -0.11227961 -0.1214177 0.046650782 -0.12152742 0.10984367 -0.10818711 0.017859705 0.09963207 0.08954438 -0.016668217 -0.12718117 0.21675295 0.15641186 0.017681254 -0.0783678 -0.043664698 -0.002798103 -0.046156537 -0.120171756 0.32690367 -0.10952119 -0.23035797 -0.050668433 -0.04056785 0.040641025 0.15853392 0.08342631 -0.0532717 0.13261843 -0.089984514 0.1857868 0.2758118 0.109033205 0.13880369 -0.07125404 -0.101224385 0.06950394 0.07952942 -0.13643542 -0.0525868 0.09297802 0.0019310472 -0.22570685 -0.022698743 -0.13073182 -0.12390514 -0.03249623
π 0.024441963 -0.040916443 0.0375455 -0.050429285 -0.13538742 0.016906032 -0.045645837 0.08720616 -0.16837189 -0.057119057 0.1158611 0.014291168 0.008267355 -0.12860976 0.19231883 0.1605559 0.08621508 0.032859102 -0.11649508 -0.058927093 -0.06629466 -0.099165216 0.31539103 -0.09919366 -0.16441253 -0.031041441 -0.0342001 0.09247061 0.104936115 0.05421986 -0.04613092 0.05703196 -0.045341462 0.11370516 0.21419995 0.05778177 0.17749558 -0.024898896 -0.08045615 0.05111271 0.09846073 -0.113679595 -0.06499643 0.05906959 0.07655784 -0.16031547 -0.018381529 -0.115058064 -0.084028386 -0.005889794
ν 0.021520166 -0.034268938 0.03929728 -0.06075849 -0.12208665 -0.014491603 -0.03567274 0.085203975 -0.1630438 -0.05139257 0.14392348 0.005431092 0.02189387 -0.12544692 0.21740201 0.17107086 0.12804396 0.047836296 -0.15561144 -0.08559581 -0.068392836 -0.058705606 0.37989396 -0.09106469 -0.16586043 -0.013930891 -0.08884661 0.096828386 0.09616927 0.031788886 -0.036208946 0.020816809 -0.04927861 0.07904686 0.21683456 0.032561235 0.20010573 -0.029217146 -0.07466572 0.023295954 0.06278003 -0.11563627 -0.09138904 0.06930759 0.1221871 -0.14900231 -0.05246906 -0.13882954 -0.08992118 0.017782493
υ 0.032048393 -0.06658393 0.04789583 -0.08607855 -0.11499474 -0.008967169 -0.034010928 0.10270387 -0.14590561 -0.04222715 0.09308881 -0.010420652 0.026348397 -0.12950605 0.19518757 0.15761328 0.065990984 0.035252325 -0.110437065 -0.08471742 -0.04270096 -0.05558533 0.33735222 -0.10545709 -0.16296388 -0.017365566 -0.06682697 0.064577065 0.10629169 0.023194665 -0.062377557 0.036302365 -0.019621631 0.0976874 0.21380463 0.037464537 0.17579547 -0.04365473 -0.06452245 0.04143714 0.07810197 -0.097770855 -0.053675845 0.057463914 0.10157412 -0.13504773 -0.019714959 -0.11196597 -0.112147436 -0.008699709
ς 0.037196692 -0.030343069 0.019497713 -0.029952541 -0.112269066 0.010964371 -0.01741869 0.054330416 -0.12436439 -0.033612538 0.08713214 0.015029765 0.0348577 -0.06936266 0.14208606 0.14771852 0.09975035 0.05591785 -0.10386441 -0.08738766 -0.023845091 -0.0526697 0.27536163 -0.049984284 -0.09274663 -0.018272717 -0.05621007 0.07797385 0.07537855 0.03259552 -0.00839831 0.024181556 -0.004376089 0.022828858 0.14484751 0.032263387 0.14585626 -0.030786518 -0.07036002 0.0137081165 0.039004825 -0.05852586 -0.05198689 0.033419125 0.091752395 -0.0833251 -0.04721977 -0.10500456 -0.06870032 0.02240301
å 0.012435851 -0.044475812 0.024155099 -0.069832146 -0.11443144 -0.01206196 -0.05891628 0.070181236 -0.14601624 -0.042987335 0.12644602 0.026540775 -0.005316498 -0.108288325 0.17629805 0.12670751 0.03535054 0.041540045 -0.071099356 -0.06984302 -0.04344101 -0.09417047 0.30036202 -0.068396345 -0.1322276 -0.02085804 -0.05248453 0.068493605 0.08341302 0.04973549 -0.03403528 0.038344137 -0.054040346 0.088535175 0.20510711 0.035783388 0.14364216 -0.049894474 -0.06898948 0.01164642 0.032196123 -0.088168666 -0.09491123 0.05733259 0.06078877 -0.1600917 -0.06748225 -0.13184687 -0.07430736 0.012148143
ç 0.020338688 -0.06719252 0.027312724 -0.09011259 -0.07420503 0.004356533 -0.06725553 0.073260464 -0.10008434 -0.019790817 0.07897935 0.029429656 0.015712395 -0.09424213 0.17026539 0.10216756 0.045923438 -0.0058957287 -0.0711389 -0.056531504 -0.05736463 -0.072137095 0.23006119 -0.056803443 -0.11057497 0.018421447 -0.037647113 0.056724086 0.088492446 0.035133567 -0.055897374 0.07652946 -0.054108977 0.09362765 0.20045961 0.052615944 0.11190052 -0.06287071 -0.042959098 0.045812767 0.018890793 -0.08936562 -0.03753346 0.05804953 0.04469884 -0.13254397 -0.040525537 -0.06751274 -0.08917011 -0.017323434
î 0.011479183 -0.02027631 0.03670187 -0.042042136 -0.1399004 -0.029482946 -0.005944375 0.08672154 -0.11730208 -0.059097644 0.11893105 0.023933386 0.029303549 -0.074427925 0.15947795 0.12681194 0.064861335 0.061906748 -0.13205123 -0.07596107 -0.04014613 -0.034082524 0.27244508 -0.07641053 -0.11063851 -0.011771453 -0.050429013 0.08279002 0.0770732 0.04943198 -0.048196997 0.035784215 -0.03915991 0.05948899 0.16205393 0.043271426 0.13976985 -0.0116924625 -0.04585078 0.015416954 0.055691943 -0.058427114 -0.060170993 0.05622656 0.10138377 -0.103351146 -0.019677613 -0.12569004 -0.096853524 0.0117620565
