60 50
_ 0.019561142 -0.09909414 -0.124399796 -0.05090784 0.26438084 0.17019448 -0.00026161922 -0.048065346 0.04169736 0.20388722 -0.077430494 -0.024207134 -0.18350561 0.10486724 0.011150224 -0.14027074 0.12841174 -0.13557602 -0.1558921 -0.009731052 0.033059876 -0.022547068 -0.0714375 0.040127292 0.009503424 0.01703888 -0.042117663 -0.07043364 -0.0006960836 0.014848265 -0.037388913 0.057771694 0.202849 0.17787378 0.09407156 -0.04673637 0.018954473 -0.0059969695 -0.079823844 0.09784417 -0.08126191 0.051923353 -0.070334874 0.003936222 -0.10057877 -0.07280118 -0.05126684 -0.033776943 -0.013822514 0.13029513
e 0.020970477 0.013119043 -0.21111238 -0.009047351 0.034809638 0.006622546 0.10962705 0.043090772 -0.028076556 0.15920347 -0.04772288 -0.13512677 -0.083509244 -0.027849492 -0.009424599 -0.03712585 0.11205985 -0.1400711 0.07092475 -0.1132427 0.04129322 -0.07344741 -0.07109055 0.08280528 -0.118790075 -0.039051645 -0.07563934 0.02051622 0.0075866976 -0.055309366 -0.041120768 -0.022189083 0.12974107 0.08353924 0.07191728 -0.00078632776 0.021282097 0.0015046345 -0.10598626 0.030761147 -0.16209526 -0.04481227 -0.029414952 0.13317013 -0.16526404 -0.098230734 0.0005231289 -0.014182272 0.053303987 0.11267269
t 0.04805258 0.018897861 -0.28214732 -0.118199304 -0.003235868 0.068833135 -0.010767877 -0.039321363 0.12078095 0.056713283 0.015205431 -0.17175573 -0.12537846 0.08903932 -0.056005105 -0.0113430945 0.044122458 -0.12291222 -0.055538088 -0.033905774 -0.0445039 -0.015957654 -0.011514233 -0.016494498 0.04599736 -0.015280731 0.04678813 0.09630683 0.040960364 -0.12509625 -0.047298856 0.054200824 0.10729148 0.10731593 0.21223308 0.01217242 0.019520631 -0.15978289 -0.085110515 0.03402759 -0.06974168 -0.027293306 -0.017811358 -0.06392712 -0.10046884 -0.07382032 0.05248561 -0.02286592 -0.009689243 0.112090565
a 0.04570773 -0.050647296 -0.12113818 -0.06843409 0.13943008 0.12429039 0.057235293 0.064202964 0.043208275 0.034062296 -0.13578239 -0.10415061 -0.026645225 -0.02359165 -0.08353087 -0.01736218 0.07709325 -0.048928164 -0.031177491 0.02262517 0.024277292 -0.0313969 -0.07781914 0.040367 -0.03776836 -0.015735911 -0.10605857 -0.04830588 0.046227373 0.042711016 -0.13841826 -0.0035485842 0.011466492 0.13264985 0.1342079 0.018757192 0.0032999762 0.08581986 -0.09666137 0.007668699 -0.2628818 -0.054217074 -0.013324036 0.04283408 -0.045545954 -0.03707986 0.066491835 -0.031956162 0.11640533 -0.004759235
o -0.025672581 0.04382293 -0.12582728 -0.097504176 0.023160208 0.10393967 0.10875012 -0.03318761 0.0029509203 0.16421728 -0.055796042 -0.103850685 -0.12993823 0.07418911 -0.021131136 -0.12728319 0.14119764 -0.1075394 -0.10393786 -0.039557014 -0.0651922 -0.09029264 0.04452224 -0.03354508 -0.08042453 0.0123688225 0.0463681 0.11620392 0.11154984 -0.01817381 -0.21774535 0.058956884 0.03459969 0.08588638 0.11127765 0.065422885 -0.0006427907 0.00247768 -0.08545452 -0.06838916 -0.2714817 0.002724271 -0.13140436 0.024361122 0.008904215 0.0013357191 0.027082425 -0.14708179 0.14739352 -0.05740252
n 0.11629571 -0.002550961 -0.12965727 -0.1141738 0.013498502 0.15103582 -0.003858214 -0.08900266 0.112546384 0.09952164 0.012746653 -0.15918282 -0.016724281 0.00067069236 -0.1373206 -0.017327437 -0.045546614 -0.20461012 -0.07409918 -0.058174107 -0.111012354 -0.094863996 -0.020454902 0.0052986294 0.12877782 -0.1666401 -0.18309265 -0.1330971 0.13078195 -0.030722274 0.013986877 0.079015605 0.02968092 0.048125748 0.21914193 0.0011800162 0.0030862358 -0.03598075 0.017344218 0.05948838 -0.06845817 0.060283195 -0.10011714 0.027559323 -0.07241628 -0.13054998 0.1266308 -0.011781618 -0.14895006 0.08463047
i 0.008364958 -0.017125878 -0.18865633 -0.1988152 0.10482301 -0.01212779 0.07557436 0.18007004 0.020010365 0.009257257 0.033577178 -0.0502456 -0.13765231 0.08003084 -0.08365414 -0.012852203 0.076352894 -0.080077946 -0.101870306 0.04108437 -0.0012016523 -0.04211791 -0.053667806 0.00045336963 -0.004508627 -0.06115062 -0.06761657 -0.10495032 0.027564617 0.050718714 -0.00564244 -0.0140416995 0.022624176 0.07848222 0.12743536 -0.037205 -0.015598283 0.07065872 -0.051546462 0.018114787 -0.29189244 -0.113681644 -0.047292173 -0.015530163 -0.07704042 -0.0909621 -0.0023730511 0.011394425 0.025097122 0.05637272
s -0.008242905 -0.068931095 -0.13118649 -0.13408372 -0.016713807 -0.0069389916 -0.038296103 -0.03424867 0.12242127 0.12094831 -0.12723222 -0.02357674 -0.06401881 0.044069007 -0.15112534 -0.07603464 0.075764716 -0.13498059 -0.13477777 -0.06433009 -0.005794972 0.019332996 0.029160425 -0.015894374 0.015638094 -0.013725461 -0.0024653962 0.010988216 0.06821938 -0.070134334 -0.055574663 -0.004354172 0.12773916 0.11165568 0.2698995 -0.0077474946 0.051376633 -0.04148241 -0.0039421422 -0.049161907 -0.12958603 0.02462033 -0.028479947 -0.0071473126 -0.043752834 0.049501378 -0.0190204 -0.016330067 0.020250684 0.07134055
h -0.01246233 -0.10647381 -0.21021521 -0.12512718 0.0831246 0.040201984 0.08704353 -0.0805052 0.021876484 0.025724621 0.00087175815 -0.10438366 -0.09045868 -0.0012179615 -0.21264295 -0.086001605 0.083873704 -0.14449799 -0.1589097 -0.035755575 -0.003199797 0.016806426 -0.08765366 -0.02734886 -0.02932044 -0.19474216 -0.18750209 -0.0707681 0.052986275 -0.07484688 -0.087935105 0.10594638 0.12587044 -0.015606432 0.14280842 0.016508011 -0.0013813924 -0.026292033 0.0012541724 -0.030164126 -0.12735583 0.025197102 -0.011529158 -0.0011159275 -0.0763848 -0.12995568 0.15611297 -0.048520494 0.10542128 -0.13552646
r -0.12180662 -0.047254678 -0.14893492 -0.14183271 -0.047443368 -0.0032617932 -0.06690402 -0.026053555 0.087772176 0.17938343 -0.07268222 -0.041796386 -0.13731574 0.104586825 -0.039923903 -0.12180867 -0.008242983 -0.09651572 -0.1315791 0.09997353 0.0046968143 -0.10682902 0.017968107 -0.040015433 0.02522732 -0.044492107 -0.1333239 -0.0859531 0.032053422 -0.081710584 -0.013678273 0.03505274 0.093493424 -0.023398748 0.1894986 0.03387073 -0.06254538 0.027079739 -0.08975285 -0.054287095 -0.08982035 0.030663535 -0.10569664 0.0013077987 -0.13014105 -0.056323566 0.09159186 0.048805274 0.044324134 0.082881115
d -0.00946302 -0.1274122 -0.12634736 -0.17171828 0.08555305 0.064269766 -0.04319601 -0.053581093 0.17666848 0.043538563 -0.104833335 -0.11300884 -0.04606343 0.093884386 -0.17227381 0.025125667 0.11624669 -0.11123566 -0.10632892 -0.011043071 0.058352806 0.017908864 -0.02333661 -0.042446714 -0.08242489 -0.07996882 0.026035987 0.100400165 -0.03439451 -0.038881253 -0.044925578 0.0466404 0.0070891753 -0.042448327 0.22608073 0.042420574 0.043774962 0.031406455 -0.15544531 0.03924095 -0.055304557 -0.033694755 0.0154291075 0.0676422 -0.14598593 -0.049247406 -0.036518972 -0.0942176 0.042507224 0.09769735
l -0.036716904 -0.055548016 -0.025581323 -0.09698595 0.1072976 0.0629605 -0.093705244 -0.03891891 0.112359434 0.1356842 -0.15061738 -0.035183 -0.11884168 0.09229734 -0.10525741 -0.06994367 -0.07253729 -0.106480636 -0.08723695 0.109452695 -0.01499183 -0.10155918 0.041070458 0.0127686765 -0.043234456 -0.21408239 -0.017361043 0.008293424 0.043612387 -0.07160413 -0.12118053 0.1379284 0.07106956 0.066727825 0.17516574 -0.05509353 -0.1412778 0.10865202 -0.024926428 -0.0048408187 -0.06256242 -0.05635033 0.008743646 -0.027484661 -0.087714575 -0.08628989 -0.051032074 0.032781214 -0.047219727 0.037567955
u -0.002147132 0.1031648 -0.2528593 -0.044531524 -0.08788428 -0.033963002 0.14860928 -0.051129445 -0.044166595 0.08662094 -0.026686097 -0.044273924 -0.051529747 0.048363708 -0.14486088 -0.071618915 0.1465826 -0.15251283 0.013077983 -0.05411783 0.06303257 -0.111544535 -0.012533031 -0.11221415 -0.025893245 -0.06577987 -0.05103182 -0.17595883 0.06452241 -0.0074353265 -0.087966725 -0.03883616 0.08095514 0.10295868 0.07798382 0.17721972 0.0701328 0.08816098 -0.123286225 -0.051346105 -0.10949264 -0.25571305 0.010140726 -0.07227349 0.07357449 -0.11663309 -0.11199227 0.26696774 -0.23176956 0.1425403
m -0.16322501 0.046129048 -0.058511995 -0.0789377 -0.010192952 0.12051614 0.02456723 -0.032057565 0.06545204 0.042482156 -0.22090843 -0.12129582 -0.090006046 0.1494197 0.00409456 -0.04151044 0.057370663 -0.18714933 -0.09318367 0.011015587 0.007248335 -0.058488954 -0.05884464 -0.18683437 -0.06654505 -0.105284505 0.01041097 0.0890992 -0.060045365 -0.058948528 -0.0903517 0.04651598 0.06386251 0.060479563 -0.00017921954 -0.016479257 0.008779426 -0.009051933 -0.08395064 -0.04930744 -0.047667883 -0.036864523 -0.0844117 0.0053381473 -0.0633264 -0.26159754 -0.0075454405 -0.039314542 -0.02091454 -0.022264836
c -0.009101678 -0.1430805 -0.06246811 -0.030473879 -0.017970363 0.034736544 0.018174207 -0.00073571777 0.0928744 0.20290743 -0.0728645 -0.10292179 -0.20626277 0.13267154 -0.060795415 0.020355033 0.04587455 -0.2084218 -0.19290799 -0.08667869 0.041415058 0.053997423 -0.029450534 -0.045355354 0.01798425 -0.0027648648 0.061074086 0.05629531 0.05013158 -0.058837876 -0.070842534 0.0014381127 0.01585951 0.050030105 0.13659637 0.08621863 -0.010632328 -0.08303375 0.014048337 0.036726747 -0.1770374 -0.022980144 -0.08873105 0.0014090423 -0.15160692 0.00024049997 -0.06808337 -0.003111838 -0.052535214 0.19395502
f 0.044688076 0.012368362 -0.1526123 -0.024464995 0.047987375 -0.104189545 0.0451585 -0.06309879 0.12597899 0.070146926 -0.079865016 -0.22247005 -0.07898143 0.10074708 0.064135626 0.0002948984 0.089450836 -0.264115 -0.04003762 0.009642846 -0.0028953555 -0.009098721 -0.13091023 -0.28627643 0.01124148 -0.07079674 0.060451258 0.009740749 0.0020996162 -0.08476184 -0.0030864314 0.020623999 -0.024934597 0.052206375 0.18178971 -0.009674074 0.20761138 -0.11300387 -0.15585469 0.060258698 -0.09676536 0.037152275 0.10769044 -0.054461777 -0.055796903 0.006795403 0.05274376 -0.068530396 0.013370127 -0.040791627
w 0.05331465 -0.123991534 -0.08303496 0.05071608 0.030076804 0.0981125 0.092356175 0.0026824293 0.018426305 0.052066963 -0.115506455 -0.31714538 -0.13325045 0.08818653 -0.15094294 0.16137439 -0.04072843 -0.10043115 -0.11803488 -0.15506092 0.055372085 0.14378867 -0.0378847 -0.024077311 0.11239054 -0.06430433 0.046493575 -0.020705847 -0.013828952 -0.117015466 -0.08696155 -0.050296333 0.07242145 0.101509914 -0.03723212 -0.14167823 0.0764363 -0.21340202 -0.06408057 0.06651461 -0.22766434 -0.15470453 -0.060212754 -0.01609143 -0.23675592 -0.072315104 0.033577256 0.053202536 0.03902593 0.02196717
y 0.07137493 -0.06901854 -0.21582763 0.01605841 0.031657852 -0.09555756 0.00825088 -0.06310605 0.023336653 0.18885711 -0.06664442 -0.052446954 0.06875457 -0.05613948 -0.10089657 0.062438995 0.19955443 -0.1337309 -0.07507836 0.030836351 0.17389362 -0.012196098 0.15011422 -0.11444123 -0.03288747 -0.08481084 0.06327081 0.13287614 0.104728 0.051420067 0.06260531 -0.05832315 0.29069167 0.024390707 0.21798436 0.11830637 -0.06561359 0.0511308 -0.08381538 0.015211876 -0.1767343 -0.018916244 -0.028072387 0.044044647 -0.1055573 0.05048836 0.13121796 -0.029099884 -0.15631332 0.026958108
g 0.06956896 -0.14177892 -0.04782266 -0.029111624 0.034091562 0.119339466 -0.082783125 0.13307607 0.1765507 0.049263354 0.0951702 -0.1670358 -0.12971064 0.1344864 -0.18233827 0.039025154 0.11843022 -0.260279 -0.07833846 -0.101723194 0.025097752 0.05342172 0.010178648 -0.08311004 0.0626738 0.015056066 0.08141407 0.062216703 -0.09674183 -0.059722636 -0.10382815 0.01895389 -0.046329435 0.0834457 0.08329075 -0.004650548 -0.09303288 -0.036818735 -0.20378298 0.22701132 -0.051190834 -0.09366692 -0.18351996 0.1415182 -0.12436144 0.057082225 0.008434093 -0.038673434 0.10475887 0.0703151
p 0.04455304 -0.16915081 -0.16010293 -0.08932502 0.03758396 -0.064784646 0.11445716 -0.0003613365 0.15027477 0.18903758 -0.18946591 -0.071216196 -0.11609211 0.04568385 0.13797164 0.04563398 0.109018974 -0.20483805 -0.021659309 -0.06600248 -0.014269151 0.1287498 -0.11567765 -0.1934941 -0.033618927 -0.14549589 0.019977773 -0.0036108382 -0.017414931 -0.022328788 0.008196565 -0.031695016 -0.00047058708 0.14921759 0.22790988 -0.0023152041 0.044750333 -0.043256637 0.13099314 0.03728291 -0.110035196 0.084356464 -0.12221906 0.008279578 -0.003989778 -0.18410748 -0.122961335 -0.008439604 0.041414913 0.122238226
<s> 0.07574175 0.11297145 0.10253259 -0.3783706 0.09687217 -0.09439185 0.018527549 0.34419742 -0.14088771 0.0365163 -0.081076056 -0.095616825 0.23071514 -0.15324338 -0.13658972 -0.05145973 0.6920744 0.06294824 -0.6142996 0.067656875 0.17098688 0.07455135 0.062321424 -0.027316608 -0.19097966 -0.22712056 0.12519027 -0.17042765 0.07825791 -0.19218577 -0.16121833 0.3096645 0.27958405 0.69722456 -0.24831943 -0.09728957 -0.079184115 -0.43163028 0.18290083 0.1041842 -0.086046234 -0.24151933 0.16597004 -0.3492768 -0.44124502 -0.24391891 0.2592015 0.16425481 0.14813812 -0.14836554
</s> -0.24700767 -0.31974563 0.13456854 -0.34773147 -0.26838052 0.27018678 -0.41101745 0.20756823 -0.07945821 0.103179574 0.13819261 -0.10845377 -0.4121182 0.45653796 0.63098234 0.583564 -0.010316272 -0.16135249 -0.3162512 -0.5805657 -0.18466024 -0.9009872 -0.2051134 -0.3026059 -0.1576793 -0.12510672 -0.338378 0.10039734 0.30175942 -0.10037877 0.04922047 -0.1650162 0.26528886 -0.080257386 0.18081743 0.07903305 0.30572158 0.3374871 -0.12804037 -0.007071059 0.31846184 -0.084866 -0.25166318 0.14967288 0.31327823 0.082984366 0.052879207 -0.13205671 -0.09195677 -0.006330054
, 0.19529659 -0.22024198 -0.06603101 -0.168607 0.2034642 0.17389233 0.09967005 0.15012054 0.20880654 0.30806708 -0.1179295 -0.081473134 0.06109955 -0.06270194 -0.041635755 -0.07623124 0.24026112 -0.09559591 -0.15645434 0.07098424 0.062160194 0.109052256 -0.043068144 0.097212225 -0.044370495 -0.08908704 0.050014965 -0.14768939 0.21016832 -0.0054240907 -0.2850334 0.3597494 0.008483421 0.084977776 0.025689643 0.04930117 0.30826175 0.14371648 -0.07740838 0.093957216 0.047298316 -0.19148688 -0.07875996 0.020586632 -0.11436062 -0.14109007 0.0868487 0.05113917 -0.06360724 0.0681195
b -0.043883514 -0.03405393 -0.08975047 -0.0066977814 0.067857035 -0.0006874044 -0.014209369 -0.22561179 0.069027476 0.17817132 -0.14429575 -0.16327663 -0.065921396 0.0929536 -0.20778324 0.0029570595 0.015125463 -0.004393041 -0.17561473 -0.012562704 -0.008250096 -0.011591261 -0.052473884 -0.220367 -0.033765808 -0.14236493 -0.06626905 0.030739276 0.04071818 -0.018149864 -0.054737337 0.17094235 -0.077082336 0.10922857 0.073628575 -0.0050391885 0.088657744 0.015649242 -0.119885266 0.116498835 -0.13681695 0.0080423625 0.04332992 0.104371354 -0.13992581 0.05804141 -0.05155546 -0.09721455 -0.16731067 0.030535951
v 0.056218296 -0.17903294 -0.21702264 -0.082898244 0.023924788 0.061189696 -0.047688767 -0.0896492 0.10944867 0.001458328 -0.19351819 -0.23659511 -0.09727448 0.06801468 -0.22877175 0.06251875 0.12599225 -0.15944502 0.011779882 -0.028855866 -0.051249847 -0.094441675 -0.037367154 -0.21231878 0.012112936 -0.09746269 -0.075046666 0.08969503 -0.05317943 -0.0996412 -0.012179308 -0.01319813 -0.05472974 0.27191535 0.060377218 0.0309276 -0.036211047 0.11346262 -0.12410539 0.12004984 -0.02402723 -0.18563493 0.17272893 0.001686988 0.025153792 -0.050202254 0.055995967 0.033216085 0.11774272 0.09175485
. 0.10626392 -0.359502 0.041637916 -0.13215719 0.062237367 0.21199565 -0.1153618 0.096658655 -0.06383778 -0.008760301 0.24020231 -0.30434588 -0.1318127 0.24310356 0.53911966 -0.08491248 0.36901286 -0.32177448 -0.10975066 -0.16789398 0.06768738 -0.53190637 0.4905724 -0.24338384 -0.16778108 -0.5565421 -0.34629506 0.04521647 0.005260463 -0.39439413 -0.06252088 -0.28276443 -0.17046621 -0.32600477 0.18191667 -0.2698351 0.27745232 0.015408094 -0.12866844 -0.3280828 -0.16797893 -0.18549323 -0.052901782 -0.124624 0.2776814 -0.01114837 -0.17417462 -0.22909358 0.027280966 0.4517637
k 0.003406333 -0.21897249 -0.14049451 -0.10571197 0.13359083 0.23228659 -0.13210823 -0.044784874 0.1861861 -0.100135036 -0.06890091 -0.0047867442 -0.028510926 0.07123741 -0.19278435 -0.09584533 0.035595097 -0.14482145 -0.17526841 -0.14581981 -0.049896047 0.05473663 0.03783064 -0.061975565 0.09478279 -0.0067232205 -0.011084353 0.01937795 0.014490416 -0.060793042 -0.114870146 -0.1321285 0.1788222 -0.07769845 0.33410075 -0.07369735 0.05195512 -0.018598128 -0.1448359 -0.0002878865 -0.065063484 -0.15165408 0.10281926 -0.08874215 0.041240394 -0.09465813 -0.02782829 0.15821782 0.0042233174 -0.23251101
; 0.2716842 -0.18358503 -0.055652115 0.11734702 0.22226262 0.21526212 0.043735184 0.11668525 0.5020946 0.5253168 0.045233946 -0.16889353 -0.07230954 0.07548062 0.15127265 -0.14098936 0.24324569 -0.13110302 0.10054307 0.120077014 0.1935823 0.12739448 -0.14795709 0.23586805 -0.01750592 -0.26241037 0.1904651 -0.19901004 0.24697497 -0.051113155 -0.5043754 0.48902312 -0.086569026 -0.012464503 -0.038230453 0.21632512 0.25305963 0.046663113 -0.19751889 0.13925813 0.04110101 -0.34157267 -0.015488427 -0.13582459 -0.09778459 0.08181517 0.29670402 0.10416012 -0.10111318 0.14876604
" -0.26170316 -0.015992131 0.07791159 -0.39402583 -0.18918562 -0.25374022 -0.3091518 -0.0156063605 0.05326054 -0.31729642 -0.544049 -0.27124834 0.3557917 -0.23789877 -0.39907998 0.47523224 0.30504388 0.19563489 -0.112940654 -0.08776267 0.32530412 -0.029467609 0.52642536 -0.3682978 -0.0069291717 0.180614 -0.26867008 -0.021907462 -0.32075062 0.02511536 0.21791041 -0.0083948895 0.64973027 0.43282503 -0.052895032 -0.25596955 0.10682227 0.08062984 0.2514905 -0.21228674 -0.058182374 -0.07738498 -0.28549907 0.10949364 0.06912179 -0.4093046 -0.097589366 -0.20225361 -0.06553736 -0.026798105
x -0.15313815 -0.07850563 -0.30076182 -0.3215297 -0.27812615 -0.16828188 -0.021363407 0.15748163 0.2099022 0.11305666 -0.38669303 0.080221735 -0.2002501 0.06811417 0.11502703 0.017643603 0.17874959 -0.4102591 0.07964844 -0.115541495 -0.07938527 0.1412675 -0.24777526 0.23470198 -0.24707773 -0.15837887 -0.24161111 0.021925818 0.20037827 0.0041575506 0.06535142 0.0005447302 0.04273497 0.14610155 0.17362137 0.017793808 0.01321589 0.008069741 0.26929665 -0.046187505 -0.3026374 0.057249896 0.12746593 0.054725558 0.08375903 -0.09453539 -0.13133693 -0.12854797 -0.068545476 0.3144796
' 0.050198097 0.31606352 0.009822178 -0.02825416 0.06519949 -0.12563214 -0.3557351 0.110686675 0.32298172 0.28194964 -0.028140573 -0.15861213 -0.18753535 0.03436262 -0.07761828 -0.1927075 0.040445086 0.26948917 -0.3858303 -0.32927257 0.004335846 0.47122705 0.18390894 -0.15286891 0.07136666 0.06362836 -0.511467 0.029491339 -0.012079599 -0.41902524 -0.34084892 -0.31219393 0.44763786 0.19649844 -0.07369954 -0.21506555 0.1964791 0.056662876 -0.044695213 -0.09790497 -0.09131511 -0.330631 -0.06290247 0.11755906 0.1202111 -0.076397575 -0.18153341 -0.027781885 -0.28915673 -0.40116066
q 0.03831398 -0.28838542 0.26275077 -0.015725033 -0.20219031 -0.23432909 0.2657415 -0.12612762 0.329319 0.15063088 -0.1086671 -0.07213485 -0.40614754 0.103677 -0.2415675 -0.113798276 0.19536129 -0.044105634 -0.32254004 -0.022141933 -0.08028831 0.020474035 -0.02466193 -0.26236752 -0.010304452 -0.09241694 -0.15999149 0.4113349 0.037090417 -0.004434493 -0.006741462 0.55792236 -0.07060975 0.09544236 0.059287608 -0.059457365 -0.3894205 0.021174848 -0.12178749 0.4737504 -0.10631716 -0.0065770154 0.00540169 0.046281897 0.027852494 -0.053822704 -0.10192922 -0.16990705 -0.16453283 0.3335
j -0.17414944 0.057803698 0.06445149 -0.05665546 -0.27491271 0.0648436 0.12433252 -0.10476779 0.30300933 -0.101887174 -0.2505615 0.06536964 -0.07945387 0.071320675 -0.11360108 -0.24912746 0.16318369 0.117655896 -0.14167593 0.09278365 0.056431983 0.013432265 -0.21331866 -0.24187101 -0.08462484 -0.056404397 -0.14283729 0.29309276 -0.022424342 -0.04856359 -0.1865491 0.106699735 0.21937375 0.1970119 0.2119973 0.12412058 -0.044461314 -0.10125705 -0.17077523 0.01608399 0.08612323 -0.07992148 0.06250756 -0.07716112 0.12259237 -0.037348334 0.05325815 -0.026163306 -0.14635025 0.07385733
z 0.06667785 0.012775748 -0.08847253 -0.3760153 0.18928333 0.35486966 -0.487929 -0.011473311 0.23802324 -0.24302952 -0.22266275 -0.23617515 0.2653242 0.1563108 0.089917295 0.26305708 0.30540568 0.16138405 0.13785654 -0.18331894 0.12670292 0.023571499 0.082110204 -0.029532328 0.017839044 -0.3146919 -0.113335125 -0.37437788 -0.19511016 0.11882736 -0.10176448 0.04530926 -0.1196728 0.078228675 0.17802548 -0.10502568 -0.5706481 -0.08610398 -0.39319536 0.30557758 -0.22944449 -0.0059235035 -0.3046183 0.23086627 0.18251993 0.08791233 -0.058903508 0.14577597 -0.34640548 -0.31961623
? -0.004731851 -0.300575 0.22311334 -0.35862833 0.03824514 -0.0759566 -0.22726548 0.1370268 -0.125788 -0.3973896 0.020933237 -0.3386842 0.29357567 0.04314947 0.11314727 -0.04521335 0.67410225 -0.010274919 -0.28975138 -0.13259788 0.33852527 -0.13492505 0.8620112 -0.25259393 0.056314945 -0.4170498 -0.63299775 0.013673547 -0.41311455 -0.265495 -0.16995011 0.045911685 0.19388042 -0.044471838 0.061379522 -0.44911405 0.62600285 -0.15405227 -0.119343035 -0.26182726 0.02195395 -0.25947955 -0.05369004 -0.25796196 0.370377 -0.15003787 0.03206871 -0.40550607 0.06460414 0.5916816
: 0.1292716 -0.113912284 0.11773638 -0.20220183 0.252247 -0.14060692 -0.06589404 0.24288258 0.69476324 0.3125551 -0.24697734 -0.25927073 0.021440972 -0.046632413 -0.07780099 -0.05577314 0.3721667 -0.26262885 0.09787778 0.13504732 0.18125835 0.18429731 0.19228853 0.0931774 -0.06866373 0.22030123 -0.10679666 -0.20220792 0.1393777 0.11290864 -0.44495645 0.56267345 0.22256258 0.14455187 -0.17243068 -0.021090792 0.62456083 0.18851674 -0.067694664 -0.027190825 0.15936248 -0.23926443 -0.07569492 -0.01925352 0.052080184 -0.109799884 0.24532752 -0.25320145 -0.10744671 0.0045049214
é -0.00456754 0.10609669 -0.09450764 0.01961742 0.016733706 -0.1674701 -0.2797638 0.015825717 0.2267254 0.23505585 -0.33439276 -0.17075324 -0.07087427 0.06117897 -0.3713456 -0.11886239 -0.0076255193 -0.017495645 -0.16731718 -0.1778233 0.03785772 0.27649567 0.055189367 -0.010459335 0.08250778 0.23857503 -0.33588055 0.21869119 -0.061813895 -0.16827375 -0.21361747 -0.14843336 0.50622255 0.19632757 0.0140102245 -0.24350467 0.34734318 0.14904514 0.008993905 -0.23658046 -0.072216436 -0.16366974 -0.17595705 0.23880985 0.2574361 -0.060238466 -0.15037651 -0.18957253 -0.14655273 -0.031667665
æ 0.09769142 -0.049197223 0.030484945 -0.0036354905 0.0074829287 -0.012880691 0.06557772 0.11525935 0.22616227 0.05022127 -0.09238063 -0.042638183 -0.026968146 0.038463883 -0.06965497 0.12175599 0.08598256 -0.0355295 0.0015036885 -0.14816251 0.026268775 0.13147187 0.16262472 -0.023716105 0.08800448 0.17961143 -0.03709365 0.14865729 -0.05318654 0.0209287 -0.17891961 -0.043020803 0.2620777 0.05535522 0.22085544 -0.09314909 0.30658692 0.18945071 -0.10662834 -0.031325698 -0.10661322 -0.07757026 -0.21778917 0.22947356 0.22269873 -0.10427744 -0.07036648 -0.2124515 -0.012303988 0.12062374
ê 0.0532898 0.043736108 0.011846529 -0.043926153 -0.028102783 -0.003829952 -0.03132903 0.007863043 -0.022351371 -0.060860515 0.022422437 -0.050725773 0.031870358 -0.0313691 -0.03061061 0.026739432 0.12383344 -0.04858907 -0.15161173 -0.22642638 -0.0058149453 0.05036782 0.104447655 -0.07299417 0.0400662 -0.0018640347 -0.21030115 -0.0007266972 -0.011010378 -0.028173786 -0.1324469 -0.04688498 0.32255107 0.042625543 0.16979343 -0.09116283 0.16349049 0.06354386 -0.12862568 -0.035976864 -0.13489139 -0.035924096 -0.14569432 0.14135377 0.15957022 -0.09753902 0.017553844 -0.10674813 -0.02146087 0.03053063
ö -0.008300636 -0.017029792 0.034640875 -0.013955039 -0.0293533 -0.036104362 0.0098184515 0.046385232 -0.04933457 -0.02545413 0.02750039 -0.09302806 0.020966323 0.02359896 0.03319555 0.09011154 0.15953693 0.10679107 -0.24544053 -0.27959386 0.0034515252 -0.02828724 0.1847006 -0.11321146 0.05028092 0.024483696 -0.1714393 0.11744544 -0.043470353 -0.06109965 -0.1473463 -0.13635027 0.25239694 0.0039244047 0.20966186 -0.10755666 0.272914 0.08866503 -0.14790535 -0.08495867 -0.16389444 -0.08356098 -0.2451404 0.12884793 0.22063664 -0.08396505 0.037095033 -0.1227334 -0.016039744 0.01940466
è -0.013404434 -0.0027222105 0.09390201 -7.385902e-05 -0.14360937 -0.12605323 0.015173416 0.10591842 -0.020574117 -0.0631601 0.05591775 -0.084817536 0.009560708 0.017093802 0.058893558 0.16508879 0.10106139 0.117406495 -0.17215215 -0.27517334 -0.0046587805 -0.018648904 0.19938412 -0.12889212 0.041914906 0.028433984 -0.18503441 0.16382366 -0.06259966 -0.0742694 -0.13824841 -0.09319065 0.22351512 0.029995682 0.22963753 -0.05271905 0.24507323 0.14117853 -0.13229881 -0.041389544 -0.10166711 -0.08776922 -0.21317978 0.11473627 0.16665879 -0.091675974 -0.046757612 -0.19020759 -0.022828523 0.098467305
ë 0.05680422 0.025576556 0.01622768 0.01443621 -0.042440295 0.004059902 0.06743147 0.015784502 -0.05471248 -0.026337517 0.095853254 0.0009656286 -0.008693433 -0.010022972 0.026049707 0.046795517 0.038194407 0.012299547 -0.064398825 -0.21059166 -0.022990951 -0.0022085826 0.1197839 -0.09198687 0.041433204 0.023562685 -0.13191164 0.10877651 0.00459044 -0.044675272 -0.15264036 -0.11232185 0.18253042 -0.01108787 0.23582494 -0.058051966 0.15178566 0.07935716 -0.16454664 -0.015590255 -0.21260837 -0.048062928 -0.15138642 0.12681998 0.115063235 -0.088482395 -0.075062655 -0.101077676 -0.10015846 0.041393824
à -0.07011691 0.016871283 0.022663077 0.0013911561 -0.07285913 -0.15808947 -0.0516784 0.0034035048 -0.04951319 -0.016481752 -0.07987479 -0.13802928 0.10666927 -0.0064827646 -0.11960015 0.06420654 0.14014834 0.08688819 -0.20574798 -0.18604587 0.028471729 0.14016186 0.25662774 -0.08910097 0.083106495 0.072316326 -0.17719728 0.13209952 -0.10779078 -0.028122537 -0.1401819 -0.04638033 0.34177396 0.06708451 0.14257492 -0.16382931 0.20926183 0.059584986 -0.13491207 -0.042106066 -0.17192465 -0.051834907 -0.20071824 0.13548279 0.1541843 -0.1503178 -0.026439944 -0.18841758 -0.025688928 0.060698498
ô 0.03500168 0.026967898 0.017736685 -0.025539145 -0.11942137 -0.05473129 0.04286326 0.037678875 -0.102582365 -0.11397258 0.100101754 0.031250425 0.006241844 -0.014690694 0.10707467 0.12739505 0.05358236 0.03627392 -0.0601667 -0.157517 -0.028065527 -0.0871187 0.14889286 -0.09559738 -0.022679731 -0.009834395 -0.17114297 0.15391468 0.03442082 -0.0013056959 -0.06457654 -0.10606593 0.18369673 0.007768555 0.30855063 -0.033057038 0.1254222 0.119107455 -0.12252848 -0.056775957 -0.20398879 -0.043433182 -0.16755068 0.13896944 0.08497636 -0.095251426 -0.13777034 -0.16179912 -0.07094344 0.080577195
ñ -0.024623934 0.043166783 0.05825032 -0.08996997 -0.07492967 -0.13450427 -0.022485925 0.092045836 -0.05649619 -0.16250332 -0.024658581 -0.10883747 0.16108836 -0.05227352 0.03120221 0.23989779 0.18339695 0.18153478 -0.12784553 -0.26571423 0.058692694 0.066499695 0.23126513 -0.09773693 0.044586625 0.08217996 -0.21144453 0.13890846 -0.07396426 0.021611597 -0.12428784 -0.068264775 0.31724837 0.07081913 0.25100836 -0.08101986 0.2240627 0.1221304 -0.20234388 -0.014416827 -0.16830814 -0.07611605 -0.29615405 0.18952356 0.20606129 -0.12778863 -0.02431654 -0.19928639 -0.08440086 -0.016856225
ä -0.0053050215 0.00013339604 0.028014155 -0.0051196185 -0.12303831 -0.0951026 0.007799205 0.031194974 -0.021081472 -0.03894172 -0.0003957503 -0.020016192 -0.009248585 0.012608191 0.023273828 0.03734796 0.120718636 0.051714726 -0.17854562 -0.18926191 -0.027406411 0.004011466 0.16834784 -0.16841127 0.026343063 0.008253409 -0.18541656 0.19927925 0.0031468573 -0.05158348 -0.1655982 -0.10134723 0.25810993 0.014296303 0.24003814 -0.04319797 0.20818207 0.06918683 -0.12058579 -0.04528957 -0.15118589 -0.08064413 -0.15576716 0.06523347 0.2096824 -0.09570998 -0.05199557 -0.13614884 -0.052824814 0.11234564
ï 0.0069432957 0.026813123 0.069378845 -0.07308611 -0.09554226 -0.02118569 0.0033976384 0.06098125 -0.0735953 -0.0809267 0.07783746 0.01262282 0.015124315 -0.012719117 0.087283336 0.10503912 0.055546436 0.008592731 -0.061543837 -0.15861514 0.0076686526 -0.057927098 0.1537355 -0.11485906 -0.016482683 -0.0031197348 -0.1571563 0.09809258 0.02204279 -0.04756213 -0.06269156 -0.088146456 0.16963603 -0.009271593 0.27058923 -0.05510961 0.17841786 0.10573025 -0.124139234 -0.043198064 -0.15732649 -0.04039565 -0.1730105 0.07297183 0.107652456 -0.12650003 -0.08959988 -0.14010389 -0.081142955 0.08573968
â 0.020831905 -0.0005745806 0.04192607 -0.05348219 -0.040282324 -0.067053564 0.011178769 0.099691376 0.012869761 -0.047920987 -0.049199972 -0.074130975 0.03024041 0.011497931 -0.021932572 0.06338335 0.16570908 0.037561 -0.099427246 -0.11918627 0.04598492 0.041405085 0.12567279 -0.07567637 0.026888797 0.023988022 -0.21671607 0.12284358 -0.061052192 -0.022047054 -0.14371714 -0.041872907 0.24145871 0.07036682 0.17269833 -0.10092228 0.20372862 0.116746254 -0.17607541 -0.0076268776 -0.17328142 -0.09550792 -0.20244004 0.11240351 0.176117 -0.07266339 -0.035054084 -0.17079969 -0.04596813 0.10098008
ü 0.039369944 -0.011611882 0.05477158 -0.05448599 -0.08116369 -0.03991921 0.02082276 0.062348533 -0.05347984 -0.10795438 0.0927902 0.0050573545 0.007471391 -0.017887821 0.07887437 0.090553015 0.09489022 0.053813443 -0.082220696 -0.209393 -0.018953998 -0.08658599 0.15246041 -0.12298979 -0.017569553 -0.030093487 -0.14986742 0.0996893 -0.012293268 -0.035638995 -0.08008259 -0.08812731 0.19000454 0.020718396 0.26731336 -0.050157733 0.15284732 0.051281936 -0.14073455 -0.05143493 -0.20363738 -0.07350574 -0.16471514 0.0934258 0.14580444 -0.08067752 -0.11157126 -0.13413732 -0.060919378 0.0872239
ο 0.027585678 0.019893233 0.08263262 -0.0736645 -0.07642357 -0.02842994 -0.004788342 0.09646834 -0.043964718 -0.07248728 0.09196034 -0.022293037 0.02173938 -0.006126207 0.07543571 0.12793599 0.06343398 0.000613062 -0.102693036 -0.19949505 0.00086491794 -0.11364169 0.20956326 -0.1430961 -0.005085547 -0.0020889319 -0.23686263 0.14499274 -0.0108975535 -0.052919418 -0.089373045 -0.08393868 0.29044983 0.07913112 0.39265713 -0.068375155 0.20287524 0.14667879 -0.16341391 -0.07396892 -0.2735152 -0.106224835 -0.24433298 0.16680461 0.08864015 -0.17982812 -0.09934001 -0.2025406 -0.081263185 0.06460599
ἶ 0.05434319 -0.018575571 0.071162805 -0.05718985 -0.047248196 -0.005585155 -0.040098026 0.05913076 0.012846065 -0.042557675 0.04376435 0.021119393 0.0063232672 -0.0038800635 0.01907076 0.092033945 0.039352648 -0.054738358 -0.018326333 -0.11512935 0.0023709792 -0.10746681 0.102551974 -0.13636826 -0.022505356 -0.008492146 -0.21623732 0.05117695 0.015618163 -0.02462396 -0.09488219 -0.021962153 0.2031099 0.06372681 0.3695465 -0.020054853 0.14080517 0.116785966 -0.16484556 -0.085230604 -0.2597458 -0.09239617 -0.19276659 0.13631736 -0.018826216 -0.1476155 -0.11626474 -0.15065685 -0.09872886 0.050121397
δ 0.023194466 -0.032053296 0.039417125 -0.05762812 -0.04225054 -0.016831387 -0.04415322 0.037087694 -0.021397257 -0.054145377 0.072979994 -0.009107876 0.013658459 0.006477316 0.058662318 0.10252252 0.04658965 -0.08447543 -0.038495515 -0.13015425 -0.004434237 -0.118251756 0.11239241 -0.12834422 -0.017201306 -0.016737152 -0.20641153 0.070919126 0.016198456 -0.034437373 -0.08031968 -0.0144555895 0.22187877 0.08790868 0.3430357 -0.031282976 0.14501984 0.13405327 -0.1651 -0.06134579 -0.25893563 -0.08224405 -0.17382367 0.12350305 -0.010840047 -0.14561017 -0.12851505 -0.11128176 -0.09865964 0.056456715
α 0.022676108 -0.03037612 0.046291392 -0.04023792 -0.034086995 0.007544497 -0.0110387 0.04354061 -0.020766912 -0.042091098 0.059633225 0.011566355 0.0177641 -0.007587365 0.029579705 0.08536859 0.036173265 -0.069015086 -0.025758386 -0.14144559 0.021027483 -0.10182457 0.14858404 -0.12910233 -0.033138108 -0.022932323 -0.20286603 0.084408656 0.020090967 -0.023247208 -0.08313788 -0.03288331 0.2244231 0.06984618 0.35011303 -0.033600334 0.11445156 0.12604137 -0.1579467 -0.06569006 -0.2245927 -0.08191026 -0.20629069 0.15227321 0.017422833 -0.13227329 -0.105264045 -0.16126455 -0.0820179 0.0477626
π 0.019673718 0.01098099 0.07543142 -0.0335287 -0.087432615 -0.02399855 -0.015517262 0.047469188 -0.05709408 -0.094875805 0.07420868 -0.018454343 0.0016122679 -0.016346319 0.052906107 0.077743806 0.062452566 -0.0041163987 -0.09461247 -0.15630208 -0.012423817 -0.10289561 0.12911724 -0.14531063 -0.008442315 -0.05821217 -0.17266354 0.12722276 -0.008555475 -0.033496123 -0.10016857 -0.057084084 0.20874411 0.06489772 0.30536076 -0.060652982 0.12252088 0.12401925 -0.15599172 -0.04561128 -0.2000708 -0.075898394 -0.188462 0.11264707 0.05005344 -0.12914225 -0.07919822 -0.12418738 -0.0541745 0.056274932
ν 0.014482415 0.024274573 0.07237045 -0.046189487 -0.06892939 -0.04667111 -0.0005600321 0.050815582 -0.05121985 -0.06856897 0.09054522 -0.046316903 0.016189596 -0.0039643836 0.07475004 0.07287345 0.10419971 0.018617526 -0.1304331 -0.18139952 -0.016097045 -0.070888795 0.17918639 -0.1341362 -0.0035952283 -0.046955053 -0.22113723 0.12197088 -0.019255083 -0.062772356 -0.1015066 -0.09393533 0.22704518 0.034394566 0.2840619 -0.08655521 0.17744341 0.12137111 -0.13641922 -0.072084606 -0.2253637 -0.081411116 -0.20347704 0.10681121 0.084874034 -0.119812205 -0.08801082 -0.13530453 -0.05801718 0.079221815
υ 0.014870367 -0.01804518 0.07878877 -0.049462482 -0.056053028 -0.023205837 -0.00086865504 0.05311868 -0.035728812 -0.05024656 0.042992394 -0.03520638 0.009485911 -0.0011674387 0.053092647 0.07334568 0.03114113 0.0063969716 -0.078882866 -0.17641757 -0.0017550974 -0.06406145 0.14370921 -0.14050387 -0.004926973 -0.04074314 -0.20621116 0.10050033 -0.013635118 -0.06371855 -0.10906599 -0.08739314 0.2126623 0.037853483 0.2958992 -0.078718744 0.13919613 0.09856659 -0.12502757 -0.056532335 -0.19504677 -0.058375463 -0.1633889 0.095455326 0.09872977 -0.090943985 -0.07351131 -0.122872695 -0.07778752 0.055141874
ς 0.016850311 0.0009711526 0.044232026 -0.03688816 -0.10033008 -0.03427358 -0.0026762155 0.041267246 -0.054188512 -0.064531624 0.060641434 -0.013758557 0.032069705 0.012723472 0.047614843 0.10202336 0.0822301 0.015881209 -0.09645835 -0.18121214 0.0056791077 -0.08400376 0.15780827 -0.10936665 0.008869865 -0.038894746 -0.17656523 0.12428326 -0.0041809957 -0.03949537 -0.07447906 -0.06236743 0.24209486 0.030514058 0.2721194 -0.049716204 0.1586193 0.093311146 -0.14979962 -0.07112838 -0.21251406 -0.04273827 -0.16178809 0.09287315 0.0825958 -0.1083978 -0.0893286 -0.13695797 -0.05852056 0.082802504
å -0.017806547 0.0008462445 0.033099405 -0.053768054 -0.067041874 -0.043552928 -0.015627231 0.046508472 -0.06852435 -0.052237146 0.070397206 -0.010253898 0.01840648 -0.00930636 0.03606166 0.07111717 0.02476736 -0.0119603025 -0.045226846 -0.10874339 0.0004894531 -0.095608875 0.1264944 -0.08800939 -0.008253593 -0.03581232 -0.13270874 0.08346512 -0.011880967 -0.022114206 -0.046981942 -0.050709914 0.15949081 0.06279493 0.21958344 -0.04027428 0.115513235 0.07950658 -0.111202635 -0.05540988 -0.16712129 -0.027250616 -0.15785372 0.08616477 0.026861915 -0.10562316 -0.07707944 -0.112106405 -0.041540857 0.060773477
ç 0.013420462 -0.012860074 0.041706186 -0.04099829 -0.034108296 -0.0097155925 -0.012155514 0.026305994 -0.02796523 -0.030768594 0.041265085 -0.004708456 -0.004235859 0.02072771 0.05063646 0.050465025 0.01799437 -0.059349574 -0.045153238 -0.12148296 -0.013486661 -0.053761423 0.07319571 -0.089254245 0.0069141276 -0.0013358627 -0.12932973 0.09427136 0.017631149 -0.031206096 -0.08012065 -0.020882836 0.121352434 0.030665027 0.23285933 -0.025917673 0.101943344 0.060679134 -0.10035267 -0.012301996 -0.16319169 -0.047539104 -0.10262943 0.10025112 0.0242527 -0.07530268 -0.10138206 -0.06555706 -0.071679346 0.03194104
î -0.001120416 0.0074188313 0.019015517 -0.026815718 -0.07112861 -0.0535288 0.013664787 0.04960397 -0.059338372 -0.07050886 0.046567723 -0.032762676 0.042594977 0.009229376 0.042779367 0.07963339 0.058566082 0.03293551 -0.09607016 -0.12656118 0.0058503114 -0.03143672 0.1174836 -0.101338655 -0.012829284 -0.028538005 -0.12790745 0.092561275 -0.0023452733 -0.023367036 -0.09035382 -0.069913484 0.16466174 0.0506282 0.19787133 -0.029919492 0.11507801 0.07882057 -0.08821974 -0.05220904 -0.1608456 -0.03715325 -0.12757683 0.0936011 0.06777404 -0.08600533 -0.05007123 -0.11793759 -0.05549791 0.06131578
